digraph Tree {
node [shape=box, style="filled, rounded", color="black", fontname=helvetica] ;
edge [fontname=helvetica] ;
0 [label="OutdoorOver100 <= 0.5\nentropy = 0.992\nsamples = 417\nvalue = [186, 231]\nclass = increasing case numbes", fillcolor="#d8ecfa"] ;
1 [label="RestaurantsCafesPartial <= 0.5\nentropy = 0.983\nsamples = 311\nvalue = [179, 132]\nclass = decreasing case numbers", fillcolor="#f8decb"] ;
0 -> 1 [labeldistance=2.5, labelangle=45, headlabel="True"] ;
2 [label="new_tests_smoothed_per_thousand <= 0.687\nentropy = 0.997\nsamples = 247\nvalue = [115, 132]\nclass = increasing case numbes", fillcolor="#e5f2fc"] ;
1 -> 2 ;
3 [label="new_deaths_smoothed_per_million <= 0.084\nentropy = 0.927\nsamples = 146\nvalue = [96, 50]\nclass = decreasing case numbers", fillcolor="#f3c3a0"] ;
2 -> 3 ;
4 [label="total_cases <= 0.0\nentropy = 0.985\nsamples = 70\nvalue = [30, 40]\nclass = increasing case numbes", fillcolor="#cee6f8"] ;
3 -> 4 ;
5 [label="entropy = 0.0\nsamples = 23\nvalue = [23, 0]\nclass = decreasing case numbers", fillcolor="#e58139"] ;
4 -> 5 ;
6 [label="total_cases <= 0.051\nentropy = 0.607\nsamples = 47\nvalue = [7, 40]\nclass = increasing case numbes", fillcolor="#5caeea"] ;
4 -> 6 ;
7 [label="entropy = 0.0\nsamples = 40\nvalue = [0, 40]\nclass = increasing case numbes", fillcolor="#399de5"] ;
6 -> 7 ;
8 [label="entropy = 0.0\nsamples = 7\nvalue = [7, 0]\nclass = decreasing case numbers", fillcolor="#e58139"] ;
6 -> 8 ;
9 [label="tmin <= 0.44\nentropy = 0.562\nsamples = 76\nvalue = [66, 10]\nclass = decreasing case numbers", fillcolor="#e99457"] ;
3 -> 9 ;
10 [label="new_deaths_smoothed_per_million <= 0.482\nentropy = 0.831\nsamples = 38\nvalue = [28, 10]\nclass = decreasing case numbers", fillcolor="#eeae80"] ;
9 -> 10 ;
11 [label="entropy = 0.544\nsamples = 8\nvalue = [1, 7]\nclass = increasing case numbes", fillcolor="#55abe9"] ;
10 -> 11 ;
12 [label="new_tests_smoothed_per_thousand <= 0.568\nentropy = 0.469\nsamples = 30\nvalue = [27, 3]\nclass = decreasing case numbers", fillcolor="#e88f4f"] ;
10 -> 12 ;
13 [label="entropy = 0.0\nsamples = 3\nvalue = [0, 3]\nclass = increasing case numbes", fillcolor="#399de5"] ;
12 -> 13 ;
14 [label="entropy = 0.0\nsamples = 27\nvalue = [27, 0]\nclass = decreasing case numbers", fillcolor="#e58139"] ;
12 -> 14 ;
15 [label="entropy = 0.0\nsamples = 38\nvalue = [38, 0]\nclass = decreasing case numbers", fillcolor="#e58139"] ;
9 -> 15 ;
16 [label="stringency_index <= 0.962\nentropy = 0.698\nsamples = 101\nvalue = [19, 82]\nclass = increasing case numbes", fillcolor="#67b4eb"] ;
2 -> 16 ;
17 [label="total_deaths_per_million <= 0.89\nentropy = 0.165\nsamples = 82\nvalue = [2, 80]\nclass = increasing case numbes", fillcolor="#3e9fe6"] ;
16 -> 17 ;
18 [label="entropy = 0.0\nsamples = 80\nvalue = [0, 80]\nclass = increasing case numbes", fillcolor="#399de5"] ;
17 -> 18 ;
19 [label="entropy = 0.0\nsamples = 2\nvalue = [2, 0]\nclass = decreasing case numbers", fillcolor="#e58139"] ;
17 -> 19 ;
20 [label="wspd <= 0.147\nentropy = 0.485\nsamples = 19\nvalue = [17, 2]\nclass = decreasing case numbers", fillcolor="#e89050"] ;
16 -> 20 ;
21 [label="entropy = 0.0\nsamples = 2\nvalue = [0, 2]\nclass = increasing case numbes", fillcolor="#399de5"] ;
20 -> 21 ;
22 [label="entropy = 0.0\nsamples = 17\nvalue = [17, 0]\nclass = decreasing case numbers", fillcolor="#e58139"] ;
20 -> 22 ;
23 [label="entropy = 0.0\nsamples = 64\nvalue = [64, 0]\nclass = decreasing case numbers", fillcolor="#e58139"] ;
1 -> 23 ;
24 [label="total_cases <= 0.053\nentropy = 0.351\nsamples = 106\nvalue = [7, 99]\nclass = increasing case numbes", fillcolor="#47a4e7"] ;
0 -> 24 [labeldistance=2.5, labelangle=-45, headlabel="False"] ;
25 [label="entropy = 0.0\nsamples = 7\nvalue = [7, 0]\nclass = decreasing case numbers", fillcolor="#e58139"] ;
24 -> 25 ;
26 [label="entropy = 0.0\nsamples = 99\nvalue = [0, 99]\nclass = increasing case numbes", fillcolor="#399de5"] ;
24 -> 26 ;
}