digraph Tree {
node [shape=box, style="filled, rounded", color="black", fontname=helvetica] ;
edge [fontname=helvetica] ;
0 [label="OutdoorOver100 <= 0.5\nentropy = 0.992\nsamples = 417\nvalue = [186, 231]\nclass = increasing case numbes", fillcolor="#d8ecfa"] ;
1 [label="RestaurantsCafesPartial <= 0.5\nentropy = 0.983\nsamples = 311\nvalue = [179, 132]\nclass = decreasing case numbers", fillcolor="#f8decb"] ;
0 -> 1 [labeldistance=2.5, labelangle=45, headlabel="True"] ;
2 [label="new_tests_smoothed_per_thousand <= 0.687\nentropy = 0.997\nsamples = 247\nvalue = [115, 132]\nclass = increasing case numbes", fillcolor="#e5f2fc"] ;
1 -> 2 ;
3 [label="new_tests_smoothed_per_thousand <= 0.242\nentropy = 0.927\nsamples = 146\nvalue = [96, 50]\nclass = decreasing case numbers", fillcolor="#f3c3a0"] ;
2 -> 3 ;
4 [label="new_cases_smoothed <= 0.0\nentropy = 0.999\nsamples = 81\nvalue = [39, 42]\nclass = increasing case numbes", fillcolor="#f1f8fd"] ;
3 -> 4 ;
5 [label="entropy = 0.0\nsamples = 23\nvalue = [23, 0]\nclass = decreasing case numbers", fillcolor="#e58139"] ;
4 -> 5 ;
6 [label="RestaurantsCafes <= 0.5\nentropy = 0.85\nsamples = 58\nvalue = [16, 42]\nclass = increasing case numbes", fillcolor="#84c2ef"] ;
4 -> 6 ;
7 [label="entropy = 0.0\nsamples = 33\nvalue = [0, 33]\nclass = increasing case numbes", fillcolor="#399de5"] ;
6 -> 7 ;
8 [label="day since pandemic <= 0.142\nentropy = 0.943\nsamples = 25\nvalue = [16, 9]\nclass = decreasing case numbers", fillcolor="#f4c8a8"] ;
6 -> 8 ;
9 [label="entropy = 0.0\nsamples = 9\nvalue = [0, 9]\nclass = increasing case numbes", fillcolor="#399de5"] ;
8 -> 9 ;
10 [label="entropy = 0.0\nsamples = 16\nvalue = [16, 0]\nclass = decreasing case numbers", fillcolor="#e58139"] ;
8 -> 10 ;
11 [label="wspd <= 0.204\nentropy = 0.538\nsamples = 65\nvalue = [57, 8]\nclass = decreasing case numbers", fillcolor="#e99355"] ;
3 -> 11 ;
12 [label="stringency_index <= 0.973\nentropy = 0.989\nsamples = 16\nvalue = [9, 7]\nclass = decreasing case numbers", fillcolor="#f9e3d3"] ;
11 -> 12 ;
13 [label="tmin <= 0.355\nentropy = 0.592\nsamples = 7\nvalue = [1, 6]\nclass = increasing case numbes", fillcolor="#5aade9"] ;
12 -> 13 ;
14 [label="entropy = 0.0\nsamples = 1\nvalue = [1, 0]\nclass = decreasing case numbers", fillcolor="#e58139"] ;
13 -> 14 ;
15 [label="entropy = 0.0\nsamples = 6\nvalue = [0, 6]\nclass = increasing case numbes", fillcolor="#399de5"] ;
13 -> 15 ;
16 [label="total_cases <= 0.638\nentropy = 0.503\nsamples = 9\nvalue = [8, 1]\nclass = decreasing case numbers", fillcolor="#e89152"] ;
12 -> 16 ;
17 [label="entropy = 0.0\nsamples = 8\nvalue = [8, 0]\nclass = decreasing case numbers", fillcolor="#e58139"] ;
16 -> 17 ;
18 [label="entropy = 0.0\nsamples = 1\nvalue = [0, 1]\nclass = increasing case numbes", fillcolor="#399de5"] ;
16 -> 18 ;
19 [label="new_tests_smoothed_per_thousand <= 0.652\nentropy = 0.144\nsamples = 49\nvalue = [48, 1]\nclass = decreasing case numbers", fillcolor="#e6843d"] ;
11 -> 19 ;
20 [label="entropy = 0.0\nsamples = 36\nvalue = [36, 0]\nclass = decreasing case numbers", fillcolor="#e58139"] ;
19 -> 20 ;
21 [label="pres <= 0.975\nentropy = 0.391\nsamples = 13\nvalue = [12, 1]\nclass = decreasing case numbers", fillcolor="#e78c49"] ;
19 -> 21 ;
22 [label="entropy = 0.0\nsamples = 12\nvalue = [12, 0]\nclass = decreasing case numbers", fillcolor="#e58139"] ;
21 -> 22 ;
23 [label="entropy = 0.0\nsamples = 1\nvalue = [0, 1]\nclass = increasing case numbes", fillcolor="#399de5"] ;
21 -> 23 ;
24 [label="stringency_index <= 0.962\nentropy = 0.698\nsamples = 101\nvalue = [19, 82]\nclass = increasing case numbes", fillcolor="#67b4eb"] ;
2 -> 24 ;
25 [label="day since pandemic <= 0.872\nentropy = 0.165\nsamples = 82\nvalue = [2, 80]\nclass = increasing case numbes", fillcolor="#3e9fe6"] ;
24 -> 25 ;
26 [label="entropy = 0.0\nsamples = 80\nvalue = [0, 80]\nclass = increasing case numbes", fillcolor="#399de5"] ;
25 -> 26 ;
27 [label="entropy = 0.0\nsamples = 2\nvalue = [2, 0]\nclass = decreasing case numbers", fillcolor="#e58139"] ;
25 -> 27 ;
28 [label="day since pandemic <= 0.633\nentropy = 0.485\nsamples = 19\nvalue = [17, 2]\nclass = decreasing case numbers", fillcolor="#e89050"] ;
24 -> 28 ;
29 [label="entropy = 0.0\nsamples = 2\nvalue = [0, 2]\nclass = increasing case numbes", fillcolor="#399de5"] ;
28 -> 29 ;
30 [label="entropy = 0.0\nsamples = 17\nvalue = [17, 0]\nclass = decreasing case numbers", fillcolor="#e58139"] ;
28 -> 30 ;
31 [label="entropy = 0.0\nsamples = 64\nvalue = [64, 0]\nclass = decreasing case numbers", fillcolor="#e58139"] ;
1 -> 31 ;
32 [label="day since pandemic <= 0.318\nentropy = 0.351\nsamples = 106\nvalue = [7, 99]\nclass = increasing case numbes", fillcolor="#47a4e7"] ;
0 -> 32 [labeldistance=2.5, labelangle=-45, headlabel="False"] ;
33 [label="entropy = 0.0\nsamples = 7\nvalue = [7, 0]\nclass = decreasing case numbers", fillcolor="#e58139"] ;
32 -> 33 ;
34 [label="entropy = 0.0\nsamples = 99\nvalue = [0, 99]\nclass = increasing case numbes", fillcolor="#399de5"] ;
32 -> 34 ;
}